digraph Tree {
node [shape=box] ;
0 [label="rings <= -0.137\ngini = 0.896\nsamples = 3341\nvalue = [1, 1, 13, 48, 94, 204, 307, 453, 550, 515, 389\n209, 157, 104, 82, 54, 48, 34, 25, 21, 12, 6, 8\n2, 1, 2, 1]"] ;
1 [label="rings <= -0.444\ngini = 0.765\nsamples = 1671\nvalue = [1, 1, 13, 48, 94, 204, 307, 453, 550, 0, 0, 0\n0, 0, 0, 0, 0, 0, 0, 0, 0, 0, 0, 0, 0, 0\n0]"] ;
0 -> 1 [labeldistance=2.5, labelangle=45, headlabel="True"] ;
2 [label="rings <= -0.751\ngini = 0.72\nsamples = 1121\nvalue = [1, 1, 13, 48, 94, 204, 307, 453, 0, 0, 0, 0, 0\n0, 0, 0, 0, 0, 0, 0, 0, 0, 0, 0, 0, 0, 0]"] ;
1 -> 2 ;
3 [label="gini = 0.67\nsamples = 668\nvalue = [1, 1, 13, 48, 94, 204, 307, 0, 0, 0, 0, 0, 0\n0, 0, 0, 0, 0, 0, 0, 0, 0, 0, 0, 0, 0, 0]"] ;
2 -> 3 ;
4 [label="gini = 0.0\nsamples = 453\nvalue = [0, 0, 0, 0, 0, 0, 0, 453, 0, 0, 0, 0, 0, 0\n0, 0, 0, 0, 0, 0, 0, 0, 0, 0, 0, 0, 0]"] ;
2 -> 4 ;
5 [label="gini = 0.0\nsamples = 550\nvalue = [0, 0, 0, 0, 0, 0, 0, 0, 550, 0, 0, 0, 0, 0\n0, 0, 0, 0, 0, 0, 0, 0, 0, 0, 0, 0, 0]"] ;
1 -> 5 ;
6 [label="rings <= 0.17\ngini = 0.817\nsamples = 1670\nvalue = [0, 0, 0, 0, 0, 0, 0, 0, 0, 515, 389, 209, 157\n104, 82, 54, 48, 34, 25, 21, 12, 6, 8, 2, 1, 2\n1]"] ;
0 -> 6 [labeldistance=2.5, labelangle=-45, headlabel="False"] ;
7 [label="gini = 0.0\nsamples = 515\nvalue = [0, 0, 0, 0, 0, 0, 0, 0, 0, 515, 0, 0, 0, 0\n0, 0, 0, 0, 0, 0, 0, 0, 0, 0, 0, 0, 0]"] ;
6 -> 7 ;
8 [label="rings <= 0.477\ngini = 0.816\nsamples = 1155\nvalue = [0, 0, 0, 0, 0, 0, 0, 0, 0, 0, 389, 209, 157\n104, 82, 54, 48, 34, 25, 21, 12, 6, 8, 2, 1, 2\n1]"] ;
6 -> 8 ;
9 [label="gini = 0.0\nsamples = 389\nvalue = [0, 0, 0, 0, 0, 0, 0, 0, 0, 0, 389, 0, 0, 0\n0, 0, 0, 0, 0, 0, 0, 0, 0, 0, 0, 0, 0]"] ;
8 -> 9 ;
10 [label="gini = 0.841\nsamples = 766\nvalue = [0, 0, 0, 0, 0, 0, 0, 0, 0, 0, 0, 209, 157\n104, 82, 54, 48, 34, 25, 21, 12, 6, 8, 2, 1, 2\n1]"] ;
8 -> 10 ;
}